<?xml version="1.0"?>
<opencv_storage>
<myhaar type_id="opencv-haar-classifier">
  <size>
    24 24</size>
  <stages>
    <_>
      <trees>
        <_>
          <_>
            <feature>
              <rects>
                <_>
                  7 0 14 3 -1.</_>
                <_>
                  7 0 7 3 2.</_></rects>
              <tilted>1</tilted></feature>
            <threshold>-0.0856005027890205</threshold>
            <left_val>0.9215590953826904</left_val>
            <right_val>-0.7492613792419434</right_val></_></_>
        <_>
          <_>
            <feature>
              <rects>
                <_>
                  0 2 24 4 -1.</_>
                <_>
                  0 2 12 4 2.</_></rects>
              <tilted>0</tilted></feature>
            <threshold>-0.0911548435688019</threshold>
            <left_val>0.7229195237159729</left_val>
            <right_val>-0.6144617199897766</right_val></_></_>
        <_>
          <_>
            <feature>
              <rects>
                <_>
                  5 6 14 15 -1.</_>
                <_>
                  5 11 14 5 3.</_></rects>
              <tilted>0</tilted></feature>
            <threshold>7.8952219337224960e-003</threshold>
            <left_val>-0.8289793729782105</left_val>
            <right_val>0.5187550783157349</right_val></_></_>
        <_>
          <_>
            <feature>
              <rects>
                <_>
                  14 17 2 3 -1.</_>
                <_>
                  13 18 2 1 3.</_></rects>
              <tilted>1</tilted></feature>
            <threshold>-2.6737208827398717e-004</threshold>
            <left_val>-0.3763444125652313</left_val>
            <right_val>0.1979030966758728</right_val></_></_>
        <_>
          <_>
            <feature>
              <rects>
                <_>
                  10 17 3 2 -1.</_>
                <_>
                  11 18 1 2 3.</_></rects>
              <tilted>1</tilted></feature>
            <threshold>-8.3641841774806380e-004</threshold>
            <left_val>-0.8509505987167358</left_val>
            <right_val>0.4041124880313873</right_val></_></_>
        <_>
          <_>
            <feature>
              <rects>
                <_>
                  0 0 24 4 -1.</_>
                <_>
                  0 0 12 4 2.</_></rects>
              <tilted>0</tilted></feature>
            <threshold>-0.0176340192556381</threshold>
            <left_val>0.3499579131603241</left_val>
            <right_val>-0.7808045744895935</right_val></_></_></trees>
      <stage_threshold>-1.2407289743423462</stage_threshold>
      <parent>-1</parent>
      <next>-1</next></_>
    <_>
      <trees>
        <_>
          <_>
            <feature>
              <rects>
                <_>
                  0 1 16 18 -1.</_>
                <_>
                  0 10 16 9 2.</_></rects>
              <tilted>0</tilted></feature>
            <threshold>0.0935792326927185</threshold>
            <left_val>-0.7687253952026367</left_val>
            <right_val>0.7181338071823120</right_val></_></_>
        <_>
          <_>
            <feature>
              <rects>
                <_>
                  0 1 24 14 -1.</_>
                <_>
                  0 1 12 14 2.</_></rects>
              <tilted>0</tilted></feature>
            <threshold>-0.3377014100551605</threshold>
            <left_val>0.5511283874511719</left_val>
            <right_val>-0.5843961834907532</right_val></_></_>
        <_>
          <_>
            <feature>
              <rects>
                <_>
                  8 18 7 2 -1.</_>
                <_>
                  8 19 7 1 2.</_></rects>
              <tilted>0</tilted></feature>
            <threshold>-1.4424360415432602e-004</threshold>
            <left_val>0.5068264007568359</left_val>
            <right_val>-0.6970697045326233</right_val></_></_>
        <_>
          <_>
            <feature>
              <rects>
                <_>
                  8 10 16 14 -1.</_>
                <_>
                  16 10 8 7 2.</_>
                <_>
                  8 17 8 7 2.</_></rects>
              <tilted>0</tilted></feature>
            <threshold>-6.3142487779259682e-003</threshold>
            <left_val>0.1605248004198074</left_val>
            <right_val>-0.2161273956298828</right_val></_></_>
        <_>
          <_>
            <feature>
              <rects>
                <_>
                  0 10 16 14 -1.</_>
                <_>
                  0 10 8 7 2.</_>
                <_>
                  8 17 8 7 2.</_></rects>
              <tilted>0</tilted></feature>
            <threshold>-0.0612739808857441</threshold>
            <left_val>0.7241510748863220</left_val>
            <right_val>-0.3911403119564056</right_val></_></_>
        <_>
          <_>
            <feature>
              <rects>
                <_>
                  4 5 18 8 -1.</_>
                <_>
                  4 9 18 4 2.</_></rects>
              <tilted>0</tilted></feature>
            <threshold>3.5709659568965435e-003</threshold>
            <left_val>-0.6117535233497620</left_val>
            <right_val>0.2755194008350372</right_val></_></_>
        <_>
          <_>
            <feature>
              <rects>
                <_>
                  8 14 4 3 -1.</_>
                <_>
                  8 15 4 1 3.</_></rects>
              <tilted>0</tilted></feature>
            <threshold>-1.2176450109109282e-003</threshold>
            <left_val>-0.9004716873168945</left_val>
            <right_val>0.2723410129547119</right_val></_></_></trees>
      <stage_threshold>-1.4846949577331543</stage_threshold>
      <parent>0</parent>
      <next>-1</next></_>
    <_>
      <trees>
        <_>
          <_>
            <feature>
              <rects>
                <_>
                  8 0 12 3 -1.</_>
                <_>
                  8 0 6 3 2.</_></rects>
              <tilted>1</tilted></feature>
            <threshold>-0.0643412694334984</threshold>
            <left_val>0.5164790153503418</left_val>
            <right_val>-0.6605740785598755</right_val></_></_>
        <_>
          <_>
            <feature>
              <rects>
                <_>
                  22 8 2 16 -1.</_>
                <_>
                  22 16 2 8 2.</_></rects>
              <tilted>0</tilted></feature>
            <threshold>5.8346400037407875e-003</threshold>
            <left_val>-0.2415001988410950</left_val>
            <right_val>0.4135560989379883</right_val></_></_>
        <_>
          <_>
            <feature>
              <rects>
                <_>
                  0 10 14 14 -1.</_>
                <_>
                  0 10 7 7 2.</_>
                <_>
                  7 17 7 7 2.</_></rects>
              <tilted>0</tilted></feature>
            <threshold>-0.0505768693983555</threshold>
            <left_val>0.6197419166564941</left_val>
            <right_val>-0.4322131872177124</right_val></_></_>
        <_>
          <_>
            <feature>
              <rects>
                <_>
                  0 4 24 3 -1.</_>
                <_>
                  0 4 12 3 2.</_></rects>
              <tilted>0</tilted></feature>
            <threshold>-0.0687610507011414</threshold>
            <left_val>0.3682779967784882</left_val>
            <right_val>-0.6321418881416321</right_val></_></_>
        <_>
          <_>
            <feature>
              <rects>
                <_>
                  2 8 20 4 -1.</_>
                <_>
                  2 10 20 2 2.</_></rects>
              <tilted>0</tilted></feature>
            <threshold>4.6480251476168633e-003</threshold>
            <left_val>-0.6388977169990540</left_val>
            <right_val>0.3929213881492615</right_val></_></_>
        <_>
          <_>
            <feature>
              <rects>
                <_>
                  17 1 6 2 -1.</_>
                <_>
                  20 1 3 1 2.</_>
                <_>
                  17 2 3 1 2.</_></rects>
              <tilted>0</tilted></feature>
            <threshold>3.6274449666962028e-004</threshold>
            <left_val>-0.3001157045364380</left_val>
            <right_val>0.3476741015911102</right_val></_></_>
        <_>
          <_>
            <feature>
              <rects>
                <_>
                  1 1 6 2 -1.</_>
                <_>
                  1 1 3 1 2.</_>
                <_>
                  4 2 3 1 2.</_></rects>
              <tilted>0</tilted></feature>
            <threshold>-1.6987380513455719e-004</threshold>
            <left_val>-0.6565337777137756</left_val>
            <right_val>0.3532971143722534</right_val></_></_>
        <_>
          <_>
            <feature>
              <rects>
                <_>
                  22 7 2 14 -1.</_>
                <_>
                  23 7 1 7 2.</_>
                <_>
                  22 14 1 7 2.</_></rects>
              <tilted>0</tilted></feature>
            <threshold>2.2479048930108547e-003</threshold>
            <left_val>-0.2232993990182877</left_val>
            <right_val>0.4684117138385773</right_val></_></_>
        <_>
          <_>
            <feature>
              <rects>
                <_>
                  0 17 6 2 -1.</_>
                <_>
                  0 17 3 1 2.</_>
                <_>
                  3 18 3 1 2.</_></rects>
              <tilted>0</tilted></feature>
            <threshold>-6.1424460727721453e-004</threshold>
            <left_val>0.6967970728874207</left_val>
            <right_val>-0.3651098906993866</right_val></_></_></trees>
      <stage_threshold>-1.0266929864883423</stage_threshold>
      <parent>1</parent>
      <next>-1</next></_>
    <_>
      <trees>
        <_>
          <_>
            <feature>
              <rects>
                <_>
                  0 12 12 12 -1.</_>
                <_>
                  0 12 6 6 2.</_>
                <_>
                  6 18 6 6 2.</_></rects>
              <tilted>0</tilted></feature>
            <threshold>-0.0305736307054758</threshold>
            <left_val>0.5263546109199524</left_val>
            <right_val>-0.4808822870254517</right_val></_></_>
        <_>
          <_>
            <feature>
              <rects>
                <_>
                  4 0 20 2 -1.</_>
                <_>
                  14 0 10 1 2.</_>
                <_>
                  4 1 10 1 2.</_></rects>
              <tilted>0</tilted></feature>
            <threshold>0.0110193602740765</threshold>
            <left_val>0.0469736903905869</left_val>
            <right_val>-0.7456771135330200</right_val></_></_>
        <_>
          <_>
            <feature>
              <rects>
                <_>
                  10 16 4 2 -1.</_>
                <_>
                  11 17 2 2 2.</_></rects>
              <tilted>1</tilted></feature>
            <threshold>-1.9610000308603048e-003</threshold>
            <left_val>-0.8366470932960510</left_val>
            <right_val>0.2555967867374420</right_val></_></_>
        <_>
          <_>
            <feature>
              <rects>
                <_>
                  4 21 18 2 -1.</_>
                <_>
                  13 21 9 1 2.</_>
                <_>
                  4 22 9 1 2.</_></rects>
              <tilted>0</tilted></feature>
            <threshold>2.6725009083747864e-003</threshold>
            <left_val>-0.1989088058471680</left_val>
            <right_val>0.4317963123321533</right_val></_></_>
        <_>
          <_>
            <feature>
              <rects>
                <_>
                  0 0 24 8 -1.</_>
                <_>
                  6 0 12 8 2.</_></rects>
              <tilted>0</tilted></feature>
            <threshold>-0.0678240805864334</threshold>
            <left_val>0.5934593081474304</left_val>
            <right_val>-0.3714860975742340</right_val></_></_>
        <_>
          <_>
            <feature>
              <rects>
                <_>
                  0 2 24 14 -1.</_>
                <_>
                  12 2 12 7 2.</_>
                <_>
                  0 9 12 7 2.</_></rects>
              <tilted>0</tilted></feature>
            <threshold>0.0750068426132202</threshold>
            <left_val>-0.4083473086357117</left_val>
            <right_val>0.5029172897338867</right_val></_></_>
        <_>
          <_>
            <feature>
              <rects>
                <_>
                  8 4 2 1 -1.</_>
                <_>
                  9 4 1 1 2.</_></rects>
              <tilted>0</tilted></feature>
            <threshold>-1.4856109919492155e-004</threshold>
            <left_val>-0.8100258111953735</left_val>
            <right_val>0.2152279019355774</right_val></_></_>
        <_>
          <_>
            <feature>
              <rects>
                <_>
                  4 21 20 2 -1.</_>
                <_>
                  14 21 10 1 2.</_>
                <_>
                  4 22 10 1 2.</_></rects>
              <tilted>0</tilted></feature>
            <threshold>-0.0133644100278616</threshold>
            <left_val>-0.7158306241035461</left_val>
            <right_val>5.1416750065982342e-003</right_val></_></_>
        <_>
          <_>
            <feature>
              <rects>
                <_>
                  8 5 2 2 -1.</_>
                <_>
                  8 5 1 2 2.</_></rects>
              <tilted>1</tilted></feature>
            <threshold>3.3576111309230328e-004</threshold>
            <left_val>0.2432276010513306</left_val>
            <right_val>-0.6948813796043396</right_val></_></_>
        <_>
          <_>
            <feature>
              <rects>
                <_>
                  7 21 14 2 -1.</_>
                <_>
                  14 21 7 1 2.</_>
                <_>
                  7 22 7 1 2.</_></rects>
              <tilted>0</tilted></feature>
            <threshold>5.4169460199773312e-003</threshold>
            <left_val>-0.1502037048339844</left_val>
            <right_val>0.6051363945007324</right_val></_></_>
        <_>
          <_>
            <feature>
              <rects>
                <_>
                  3 20 12 4 -1.</_>
                <_>
                  3 20 6 2 2.</_>
                <_>
                  9 22 6 2 2.</_></rects>
              <tilted>0</tilted></feature>
            <threshold>-4.2398381046950817e-003</threshold>
            <left_val>0.5038540959358215</left_val>
            <right_val>-0.3814415931701660</right_val></_></_></trees>
      <stage_threshold>-1.2779150009155273</stage_threshold>
      <parent>2</parent>
      <next>-1</next></_>
    <_>
      <trees>
        <_>
          <_>
            <feature>
              <rects>
                <_>
                  0 5 24 3 -1.</_>
                <_>
                  12 5 12 3 2.</_></rects>
              <tilted>0</tilted></feature>
            <threshold>0.0186441000550985</threshold>
            <left_val>-0.8808835744857788</left_val>
            <right_val>0.4005632102489471</right_val></_></_>
        <_>
          <_>
            <feature>
              <rects>
                <_>
                  8 7 8 16 -1.</_>
                <_>
                  8 11 8 8 2.</_></rects>
              <tilted>0</tilted></feature>
            <threshold>0.0179991200566292</threshold>
            <left_val>-0.8600791096687317</left_val>
            <right_val>0.3719336986541748</right_val></_></_>
        <_>
          <_>
            <feature>
              <rects>
                <_>
                  5 6 10 4 -1.</_>
                <_>
                  5 8 10 2 2.</_></rects>
              <tilted>0</tilted></feature>
            <threshold>2.5718820324982516e-005</threshold>
            <left_val>-0.9092445969581604</left_val>
            <right_val>0.2742787003517151</right_val></_></_>
        <_>
          <_>
            <feature>
              <rects>
                <_>
                  12 15 1 8 -1.</_>
                <_>
                  12 19 1 4 2.</_></rects>
              <tilted>0</tilted></feature>
            <threshold>-4.6160548663465306e-005</threshold>
            <left_val>0.2668474018573761</left_val>
            <right_val>-0.8399299979209900</right_val></_></_>
        <_>
          <_>
            <feature>
              <rects>
                <_>
                  0 1 24 12 -1.</_>
                <_>
                  12 1 12 12 2.</_></rects>
              <tilted>0</tilted></feature>
            <threshold>2.0281500183045864e-003</threshold>
            <left_val>-0.9741011261940002</left_val>
            <right_val>0.2105322033166885</right_val></_></_>
        <_>
          <_>
            <feature>
              <rects>
                <_>
                  3 4 18 8 -1.</_>
                <_>
                  3 6 18 4 2.</_></rects>
              <tilted>0</tilted></feature>
            <threshold>-3.9478708058595657e-003</threshold>
            <left_val>0.3389796018600464</left_val>
            <right_val>-0.7768995761871338</right_val></_></_>
        <_>
          <_>
            <feature>
              <rects>
                <_>
                  0 21 24 2 -1.</_>
                <_>
                  6 21 12 2 2.</_></rects>
              <tilted>0</tilted></feature>
            <threshold>-0.0252132304012775</threshold>
            <left_val>0.7527440190315247</left_val>
            <right_val>-0.4906128048896790</right_val></_></_>
        <_>
          <_>
            <feature>
              <rects>
                <_>
                  19 10 2 2 -1.</_>
                <_>
                  19 10 2 1 2.</_></rects>
              <tilted>1</tilted></feature>
            <threshold>-9.5644820248708129e-005</threshold>
            <left_val>0.5143874883651733</left_val>
            <right_val>-0.3988195955753326</right_val></_></_>
        <_>
          <_>
            <feature>
              <rects>
                <_>
                  5 5 5 2 -1.</_>
                <_>
                  5 5 5 1 2.</_></rects>
              <tilted>1</tilted></feature>
            <threshold>6.1282116803340614e-005</threshold>
            <left_val>-0.5261024832725525</left_val>
            <right_val>0.6136996746063232</right_val></_></_>
        <_>
          <_>
            <feature>
              <rects>
                <_>
                  10 0 14 2 -1.</_>
                <_>
                  17 0 7 1 2.</_>
                <_>
                  10 1 7 1 2.</_></rects>
              <tilted>0</tilted></feature>
            <threshold>1.3028290122747421e-003</threshold>
            <left_val>-0.3204849064350128</left_val>
            <right_val>0.5401182174682617</right_val></_></_>
        <_>
          <_>
            <feature>
              <rects>
                <_>
                  3 9 17 9 -1.</_>
                <_>
                  3 12 17 3 3.</_></rects>
              <tilted>0</tilted></feature>
            <threshold>1.4811010332778096e-003</threshold>
            <left_val>-0.8828716278076172</left_val>
            <right_val>0.4310202002525330</right_val></_></_>
        <_>
          <_>
            <feature>
              <rects>
                <_>
                  0 3 24 11 -1.</_>
                <_>
                  0 3 12 11 2.</_></rects>
              <tilted>0</tilted></feature>
            <threshold>-0.2666882872581482</threshold>
            <left_val>0.4626306891441345</left_val>
            <right_val>-0.8441765904426575</right_val></_></_>
        <_>
          <_>
            <feature>
              <rects>
                <_>
                  4 8 4 4 -1.</_>
                <_>
                  4 8 2 4 2.</_></rects>
              <tilted>1</tilted></feature>
            <threshold>-5.2500981837511063e-004</threshold>
            <left_val>0.5115786790847778</left_val>
            <right_val>-0.7630593776702881</right_val></_></_></trees>
      <stage_threshold>-1.0228840112686157</stage_threshold>
      <parent>3</parent>
      <next>-1</next></_>
    <_>
      <trees>
        <_>
          <_>
            <feature>
              <rects>
                <_>
                  0 2 24 6 -1.</_>
                <_>
                  12 2 12 6 2.</_></rects>
              <tilted>0</tilted></feature>
            <threshold>0.1944909989833832</threshold>
            <left_val>-0.4961096942424774</left_val>
            <right_val>0.5315740704536438</right_val></_></_>
        <_>
          <_>
            <feature>
              <rects>
                <_>
                  16 1 1 4 -1.</_>
                <_>
                  16 3 1 2 2.</_></rects>
              <tilted>0</tilted></feature>
            <threshold>-7.7124778181314468e-004</threshold>
            <left_val>-0.4557271897792816</left_val>
            <right_val>0.1450933963060379</right_val></_></_>
        <_>
          <_>
            <feature>
              <rects>
                <_>
                  7 1 3 3 -1.</_>
                <_>
                  6 2 3 1 3.</_></rects>
              <tilted>1</tilted></feature>
            <threshold>-1.3266459573060274e-003</threshold>
            <left_val>-0.6560090780258179</left_val>
            <right_val>0.2949137985706329</right_val></_></_>
        <_>
          <_>
            <feature>
              <rects>
                <_>
                  17 1 2 6 -1.</_>
                <_>
                  17 3 2 2 3.</_></rects>
              <tilted>0</tilted></feature>
            <threshold>-0.0152200097218156</threshold>
            <left_val>-1.</left_val>
            <right_val>5.5534490384161472e-003</right_val></_></_>
        <_>
          <_>
            <feature>
              <rects>
                <_>
                  5 1 2 6 -1.</_>
                <_>
                  5 3 2 2 3.</_></rects>
              <tilted>0</tilted></feature>
            <threshold>2.5746799074113369e-003</threshold>
            <left_val>0.2888236045837402</left_val>
            <right_val>-0.8622084259986877</right_val></_></_>
        <_>
          <_>
            <feature>
              <rects>
                <_>
                  6 16 18 4 -1.</_>
                <_>
                  6 18 18 2 2.</_></rects>
              <tilted>0</tilted></feature>
            <threshold>-0.0238510090857744</threshold>
            <left_val>-0.6755210161209106</left_val>
            <right_val>0.1160129979252815</right_val></_></_>
        <_>
          <_>
            <feature>
              <rects>
                <_>
                  7 0 9 2 -1.</_>
                <_>
                  7 1 9 1 2.</_></rects>
              <tilted>0</tilted></feature>
            <threshold>1.4197389646142256e-005</threshold>
            <left_val>-0.5529615879058838</left_val>
            <right_val>0.3734602928161621</right_val></_></_>
        <_>
          <_>
            <feature>
              <rects>
                <_>
                  8 18 8 3 -1.</_>
                <_>
                  8 19 8 1 3.</_></rects>
              <tilted>0</tilted></feature>
            <threshold>-1.4361949870362878e-003</threshold>
            <left_val>-0.7641630768775940</left_val>
            <right_val>0.2780761122703552</right_val></_></_>
        <_>
          <_>
            <feature>
              <rects>
                <_>
                  0 11 2 9 -1.</_>
                <_>
                  1 11 1 9 2.</_></rects>
              <tilted>0</tilted></feature>
            <threshold>-5.8063720352947712e-003</threshold>
            <left_val>0.7723417282104492</left_val>
            <right_val>-0.3115833997726440</right_val></_></_>
        <_>
          <_>
            <feature>
              <rects>
                <_>
                  12 15 1 3 -1.</_>
                <_>
                  12 16 1 1 3.</_></rects>
              <tilted>0</tilted></feature>
            <threshold>-5.9256970416754484e-004</threshold>
            <left_val>-0.9621735811233521</left_val>
            <right_val>0.1813959926366806</right_val></_></_></trees>
      <stage_threshold>-1.1175249814987183</stage_threshold>
      <parent>4</parent>
      <next>-1</next></_>
    <_>
      <trees>
        <_>
          <_>
            <feature>
              <rects>
                <_>
                  8 18 7 3 -1.</_>
                <_>
                  8 19 7 1 3.</_></rects>
              <tilted>0</tilted></feature>
            <threshold>1.9934300798922777e-003</threshold>
            <left_val>0.2389052063226700</left_val>
            <right_val>-0.8758893013000488</right_val></_></_>
        <_>
          <_>
            <feature>
              <rects>
                <_>
                  20 10 4 12 -1.</_>
                <_>
                  22 10 2 6 2.</_>
                <_>
                  20 16 2 6 2.</_></rects>
              <tilted>0</tilted></feature>
            <threshold>0.0134588703513145</threshold>
            <left_val>-0.1726413965225220</left_val>
            <right_val>0.7850536704063416</right_val></_></_>
        <_>
          <_>
            <feature>
              <rects>
                <_>
                  0 15 14 8 -1.</_>
                <_>
                  0 15 7 4 2.</_>
                <_>
                  7 19 7 4 2.</_></rects>
              <tilted>0</tilted></feature>
            <threshold>-0.0217562392354012</threshold>
            <left_val>0.4596807956695557</left_val>
            <right_val>-0.4345291852951050</right_val></_></_>
        <_>
          <_>
            <feature>
              <rects>
                <_>
                  16 1 3 6 -1.</_>
                <_>
                  17 1 1 6 3.</_></rects>
              <tilted>0</tilted></feature>
            <threshold>2.8597440104931593e-003</threshold>
            <left_val>0.1269848048686981</left_val>
            <right_val>-0.6451351046562195</right_val></_></_>
        <_>
          <_>
            <feature>
              <rects>
                <_>
                  0 19 19 3 -1.</_>
                <_>
                  0 20 19 1 3.</_></rects>
              <tilted>0</tilted></feature>
            <threshold>-5.8535030111670494e-003</threshold>
            <left_val>-0.9535893797874451</left_val>
            <right_val>0.1132768020033836</right_val></_></_>
        <_>
          <_>
            <feature>
              <rects>
                <_>
                  22 9 2 12 -1.</_>
                <_>
                  23 9 1 6 2.</_>
                <_>
                  22 15 1 6 2.</_></rects>
              <tilted>0</tilted></feature>
            <threshold>-4.1913199238479137e-003</threshold>
            <left_val>0.7660635709762573</left_val>
            <right_val>-0.1785944998264313</right_val></_></_>
        <_>
          <_>
            <feature>
              <rects>
                <_>
                  5 1 3 6 -1.</_>
                <_>
                  6 1 1 6 3.</_></rects>
              <tilted>0</tilted></feature>
            <threshold>2.4749441072344780e-003</threshold>
            <left_val>0.2124177962541580</left_val>
            <right_val>-0.8640214204788208</right_val></_></_></trees>
      <stage_threshold>-0.8663002848625183</stage_threshold>
      <parent>5</parent>
      <next>-1</next></_>
    <_>
      <trees>
        <_>
          <_>
            <feature>
              <rects>
                <_>
                  0 0 4 6 -1.</_>
                <_>
                  1 0 2 6 2.</_></rects>
              <tilted>0</tilted></feature>
            <threshold>1.1540070408955216e-003</threshold>
            <left_val>0.2352229058742523</left_val>
            <right_val>-0.7539439797401428</right_val></_></_>
        <_>
          <_>
            <feature>
              <rects>
                <_>
                  22 8 2 12 -1.</_>
                <_>
                  23 8 1 6 2.</_>
                <_>
                  22 14 1 6 2.</_></rects>
              <tilted>0</tilted></feature>
            <threshold>0.0133736198768020</threshold>
            <left_val>-0.0660762563347816</left_val>
            <right_val>0.8407462239265442</right_val></_></_>
        <_>
          <_>
            <feature>
              <rects>
                <_>
                  0 5 2 16 -1.</_>
                <_>
                  0 5 1 8 2.</_>
                <_>
                  1 13 1 8 2.</_></rects>
              <tilted>0</tilted></feature>
            <threshold>-5.3826370276510715e-003</threshold>
            <left_val>0.6610187292098999</left_val>
            <right_val>-0.2627880871295929</right_val></_></_>
        <_>
          <_>
            <feature>
              <rects>
                <_>
                  12 15 2 3 -1.</_>
                <_>
                  11 16 2 1 3.</_></rects>
              <tilted>1</tilted></feature>
            <threshold>2.3304570931941271e-003</threshold>
            <left_val>0.2108653038740158</left_val>
            <right_val>-0.8036053776741028</right_val></_></_>
        <_>
          <_>
            <feature>
              <rects>
                <_>
                  0 0 24 4 -1.</_>
                <_>
                  8 0 8 4 3.</_></rects>
              <tilted>0</tilted></feature>
            <threshold>-0.0297211408615112</threshold>
            <left_val>0.3761810064315796</left_val>
            <right_val>-0.4113262891769409</right_val></_></_>
        <_>
          <_>
            <feature>
              <rects>
                <_>
                  19 1 1 4 -1.</_>
                <_>
                  19 1 1 2 2.</_></rects>
              <tilted>1</tilted></feature>
            <threshold>2.2742720320820808e-003</threshold>
            <left_val>0.0389397814869881</left_val>
            <right_val>-0.2370337992906570</right_val></_></_>
        <_>
          <_>
            <feature>
              <rects>
                <_>
                  8 19 8 2 -1.</_>
                <_>
                  8 20 8 1 2.</_></rects>
              <tilted>0</tilted></feature>
            <threshold>-1.7500700778327882e-005</threshold>
            <left_val>0.3211765885353088</left_val>
            <right_val>-0.5929734110832214</right_val></_></_>
        <_>
          <_>
            <feature>
              <rects>
                <_>
                  12 15 1 3 -1.</_>
                <_>
                  11 16 1 1 3.</_></rects>
              <tilted>1</tilted></feature>
            <threshold>-1.7192440573126078e-003</threshold>
            <left_val>-0.7122293114662170</left_val>
            <right_val>0.0751506313681602</right_val></_></_>
        <_>
          <_>
            <feature>
              <rects>
                <_>
                  12 15 3 1 -1.</_>
                <_>
                  13 16 1 1 3.</_></rects>
              <tilted>1</tilted></feature>
            <threshold>6.6711159888654947e-004</threshold>
            <left_val>0.2528640925884247</left_val>
            <right_val>-0.6189517974853516</right_val></_></_>
        <_>
          <_>
            <feature>
              <rects>
                <_>
                  19 14 4 1 -1.</_>
                <_>
                  20 15 2 1 2.</_></rects>
              <tilted>1</tilted></feature>
            <threshold>5.7080411352217197e-004</threshold>
            <left_val>-0.1529054045677185</left_val>
            <right_val>0.1800619065761566</right_val></_></_>
        <_>
          <_>
            <feature>
              <rects>
                <_>
                  0 0 4 10 -1.</_>
                <_>
                  0 0 2 5 2.</_>
                <_>
                  2 5 2 5 2.</_></rects>
              <tilted>0</tilted></feature>
            <threshold>5.3789489902555943e-004</threshold>
            <left_val>-0.4785577058792114</left_val>
            <right_val>0.3604525923728943</right_val></_></_></trees>
      <stage_threshold>-0.9687739014625549</stage_threshold>
      <parent>6</parent>
      <next>-1</next></_>
    <_>
      <trees>
        <_>
          <_>
            <feature>
              <rects>
                <_>
                  3 13 3 3 -1.</_>
                <_>
                  2 14 3 1 3.</_></rects>
              <tilted>1</tilted></feature>
            <threshold>-2.6341320481151342e-003</threshold>
            <left_val>0.6209520101547241</left_val>
            <right_val>-0.3078252971172333</right_val></_></_>
        <_>
          <_>
            <feature>
              <rects>
                <_>
                  5 7 14 6 -1.</_>
                <_>
                  5 10 14 3 2.</_></rects>
              <tilted>0</tilted></feature>
            <threshold>0.0253426209092140</threshold>
            <left_val>-0.4445016980171204</left_val>
            <right_val>0.3158991038799286</right_val></_></_>
        <_>
          <_>
            <feature>
              <rects>
                <_>
                  0 3 24 2 -1.</_>
                <_>
                  12 3 12 2 2.</_></rects>
              <tilted>0</tilted></feature>
            <threshold>0.0906976312398911</threshold>
            <left_val>-0.2582899928092957</left_val>
            <right_val>0.5561684966087341</right_val></_></_>
        <_>
          <_>
            <feature>
              <rects>
                <_>
                  18 13 4 2 -1.</_>
                <_>
                  19 13 2 2 2.</_></rects>
              <tilted>0</tilted></feature>
            <threshold>-1.8477060075383633e-004</threshold>
            <left_val>0.1732462942600250</left_val>
            <right_val>-0.1844784021377564</right_val></_></_>
        <_>
          <_>
            <feature>
              <rects>
                <_>
                  0 0 6 4 -1.</_>
                <_>
                  0 0 3 2 2.</_>
                <_>
                  3 2 3 2 2.</_></rects>
              <tilted>0</tilted></feature>
            <threshold>-4.4930889271199703e-004</threshold>
            <left_val>-0.6077507138252258</left_val>
            <right_val>0.2227773964405060</right_val></_></_>
        <_>
          <_>
            <feature>
              <rects>
                <_>
                  15 9 3 1 -1.</_>
                <_>
                  16 10 1 1 3.</_></rects>
              <tilted>1</tilted></feature>
            <threshold>3.3715830650180578e-003</threshold>
            <left_val>0.0497757382690907</left_val>
            <right_val>-0.6682450771331787</right_val></_></_>
        <_>
          <_>
            <feature>
              <rects>
                <_>
                  5 7 12 3 -1.</_>
                <_>
                  4 8 12 1 3.</_></rects>
              <tilted>1</tilted></feature>
            <threshold>4.0489500388503075e-003</threshold>
            <left_val>-0.2519690096378326</left_val>
            <right_val>0.4985418915748596</right_val></_></_>
        <_>
          <_>
            <feature>
              <rects>
                <_>
                  22 6 2 14 -1.</_>
                <_>
                  22 6 1 14 2.</_></rects>
              <tilted>0</tilted></feature>
            <threshold>-5.8911391533911228e-003</threshold>
            <left_val>0.7867895960807800</left_val>
            <right_val>-0.4606846868991852</right_val></_></_>
        <_>
          <_>
            <feature>
              <rects>
                <_>
                  10 18 4 1 -1.</_>
                <_>
                  11 19 2 1 2.</_></rects>
              <tilted>1</tilted></feature>
            <threshold>-8.0091942800208926e-004</threshold>
            <left_val>-0.7201008200645447</left_val>
            <right_val>0.2735393941402435</right_val></_></_></trees>
      <stage_threshold>-1.0415689945220947</stage_threshold>
      <parent>7</parent>
      <next>-1</next></_>
    <_>
      <trees>
        <_>
          <_>
            <feature>
              <rects>
                <_>
                  0 7 2 14 -1.</_>
                <_>
                  0 7 1 7 2.</_>
                <_>
                  1 14 1 7 2.</_></rects>
              <tilted>0</tilted></feature>
            <threshold>-3.8166330195963383e-003</threshold>
            <left_val>0.6821635961532593</left_val>
            <right_val>-0.2929098010063171</right_val></_></_>
        <_>
          <_>
            <feature>
              <rects>
                <_>
                  19 15 4 5 -1.</_>
                <_>
                  20 16 2 5 2.</_></rects>
              <tilted>1</tilted></feature>
            <threshold>-4.1619320400059223e-003</threshold>
            <left_val>0.3309440910816193</left_val>
            <right_val>-0.1133202984929085</right_val></_></_>
        <_>
          <_>
            <feature>
              <rects>
                <_>
                  12 15 6 1 -1.</_>
                <_>
                  12 15 3 1 2.</_></rects>
              <tilted>1</tilted></feature>
            <threshold>8.1460475921630859e-003</threshold>
            <left_val>0.1197900995612145</left_val>
            <right_val>-0.9488201737403870</right_val></_></_>
        <_>
          <_>
            <feature>
              <rects>
                <_>
                  8 16 8 2 -1.</_>
                <_>
                  8 17 8 1 2.</_></rects>
              <tilted>0</tilted></feature>
            <threshold>-1.2322829570621252e-004</threshold>
            <left_val>0.3376966118812561</left_val>
            <right_val>-0.4534764885902405</right_val></_></_>
        <_>
          <_>
            <feature>
              <rects>
                <_>
                  4 18 2 4 -1.</_>
                <_>
                  3 19 2 2 2.</_></rects>
              <tilted>1</tilted></feature>
            <threshold>3.9823031984269619e-003</threshold>
            <left_val>-0.2412842959165573</left_val>
            <right_val>0.6854323744773865</right_val></_></_>
        <_>
          <_>
            <feature>
              <rects>
                <_>
                  7 15 10 1 -1.</_>
                <_>
                  7 15 5 1 2.</_></rects>
              <tilted>0</tilted></feature>
            <threshold>1.3868300011381507e-003</threshold>
            <left_val>0.1974979937076569</left_val>
            <right_val>-0.6880959272384644</right_val></_></_>
        <_>
          <_>
            <feature>
              <rects>
                <_>
                  5 0 2 2 -1.</_>
                <_>
                  5 0 1 1 2.</_>
                <_>
                  6 1 1 1 2.</_></rects>
              <tilted>0</tilted></feature>
            <threshold>-1.4197389646142256e-005</threshold>
            <left_val>0.4753934144973755</left_val>
            <right_val>-0.2950058877468109</right_val></_></_>
        <_>
          <_>
            <feature>
              <rects>
                <_>
                  20 15 4 8 -1.</_>
                <_>
                  22 15 2 4 2.</_>
                <_>
                  20 19 2 4 2.</_></rects>
              <tilted>0</tilted></feature>
            <threshold>-0.0122004896402359</threshold>
            <left_val>0.5605443716049194</left_val>
            <right_val>-0.0923953726887703</right_val></_></_>
        <_>
          <_>
            <feature>
              <rects>
                <_>
                  0 15 4 8 -1.</_>
                <_>
                  0 15 2 4 2.</_>
                <_>
                  2 19 2 4 2.</_></rects>
              <tilted>0</tilted></feature>
            <threshold>-7.0540970191359520e-003</threshold>
            <left_val>0.6716812252998352</left_val>
            <right_val>-0.2226050049066544</right_val></_></_></trees>
      <stage_threshold>-0.6233096122741699</stage_threshold>
      <parent>8</parent>
      <next>-1</next></_>
    <_>
      <trees>
        <_>
          <_>
            <feature>
              <rects>
                <_>
                  0 22 16 2 -1.</_>
                <_>
                  8 22 8 2 2.</_></rects>
              <tilted>0</tilted></feature>
            <threshold>-4.4842259958386421e-003</threshold>
            <left_val>0.5609701871871948</left_val>
            <right_val>-0.4523321092128754</right_val></_></_>
        <_>
          <_>
            <feature>
              <rects>
                <_>
                  18 21 2 2 -1.</_>
                <_>
                  19 21 1 1 2.</_>
                <_>
                  18 22 1 1 2.</_></rects>
              <tilted>0</tilted></feature>
            <threshold>-7.1289767220150679e-005</threshold>
            <left_val>0.3006092905998230</left_val>
            <right_val>-0.1639115065336227</right_val></_></_>
        <_>
          <_>
            <feature>
              <rects>
                <_>
                  4 21 2 2 -1.</_>
                <_>
                  4 21 1 1 2.</_>
                <_>
                  5 22 1 1 2.</_></rects>
              <tilted>0</tilted></feature>
            <threshold>-1.3677409697265830e-005</threshold>
            <left_val>0.5199782848358154</left_val>
            <right_val>-0.3298803865909576</right_val></_></_>
        <_>
          <_>
            <feature>
              <rects>
                <_>
                  14 19 1 2 -1.</_>
                <_>
                  14 19 1 1 2.</_></rects>
              <tilted>1</tilted></feature>
            <threshold>2.1217300090938807e-003</threshold>
            <left_val>0.0978025794029236</left_val>
            <right_val>-0.8416914939880371</right_val></_></_>
        <_>
          <_>
            <feature>
              <rects>
                <_>
                  10 19 2 1 -1.</_>
                <_>
                  10 19 1 1 2.</_></rects>
              <tilted>1</tilted></feature>
            <threshold>9.2273883637972176e-005</threshold>
            <left_val>-0.4202303886413574</left_val>
            <right_val>0.4349361062049866</right_val></_></_>
        <_>
          <_>
            <feature>
              <rects>
                <_>
                  14 22 8 2 -1.</_>
                <_>
                  14 23 8 1 2.</_></rects>
              <tilted>0</tilted></feature>
            <threshold>2.5371250230818987e-003</threshold>
            <left_val>-0.1544701009988785</left_val>
            <right_val>0.5067893266677856</right_val></_></_>
        <_>
          <_>
            <feature>
              <rects>
                <_>
                  5 22 14 2 -1.</_>
                <_>
                  5 22 7 1 2.</_>
                <_>
                  12 23 7 1 2.</_></rects>
              <tilted>0</tilted></feature>
            <threshold>-8.2614767597988248e-004</threshold>
            <left_val>0.4546833038330078</left_val>
            <right_val>-0.4482702910900116</right_val></_></_>
        <_>
          <_>
            <feature>
              <rects>
                <_>
                  15 0 9 6 -1.</_>
                <_>
                  18 2 3 2 9.</_></rects>
              <tilted>0</tilted></feature>
            <threshold>-0.0267538093030453</threshold>
            <left_val>0.6156312227249146</left_val>
            <right_val>-0.0913157984614372</right_val></_></_>
        <_>
          <_>
            <feature>
              <rects>
                <_>
                  3 13 6 6 -1.</_>
                <_>
                  3 13 3 3 2.</_>
                <_>
                  6 16 3 3 2.</_></rects>
              <tilted>0</tilted></feature>
            <threshold>2.7750090230256319e-003</threshold>
            <left_val>-0.2192953974008560</left_val>
            <right_val>0.7558752894401550</right_val></_></_></trees>
      <stage_threshold>-0.8675240278244019</stage_threshold>
      <parent>9</parent>
      <next>-1</next></_>
    <_>
      <trees>
        <_>
          <_>
            <feature>
              <rects>
                <_>
                  1 2 22 4 -1.</_>
                <_>
                  12 2 11 4 2.</_></rects>
              <tilted>0</tilted></feature>
            <threshold>0.1108162999153137</threshold>
            <left_val>-0.4379839897155762</left_val>
            <right_val>0.3646158874034882</right_val></_></_>
        <_>
          <_>
            <feature>
              <rects>
                <_>
                  13 3 4 10 -1.</_>
                <_>
                  14 4 2 10 2.</_></rects>
              <tilted>1</tilted></feature>
            <threshold>-3.8519510999321938e-003</threshold>
            <left_val>0.2499862015247345</left_val>
            <right_val>-0.1377709954977036</right_val></_></_>
        <_>
          <_>
            <feature>
              <rects>
                <_>
                  11 3 10 4 -1.</_>
                <_>
                  10 4 10 2 2.</_></rects>
              <tilted>1</tilted></feature>
            <threshold>1.9115200266242027e-003</threshold>
            <left_val>-0.3348832130432129</left_val>
            <right_val>0.4421904087066650</right_val></_></_>
        <_>
          <_>
            <feature>
              <rects>
                <_>
                  18 11 6 6 -1.</_>
                <_>
                  20 11 2 6 3.</_></rects>
              <tilted>0</tilted></feature>
            <threshold>-5.8162747882306576e-003</threshold>
            <left_val>0.2590397894382477</left_val>
            <right_val>-0.2556104063987732</right_val></_></_>
        <_>
          <_>
            <feature>
              <rects>
                <_>
                  4 5 15 10 -1.</_>
                <_>
                  4 10 15 5 2.</_></rects>
              <tilted>0</tilted></feature>
            <threshold>0.0782937705516815</threshold>
            <left_val>-0.3953481018543243</left_val>
            <right_val>0.3349250853061676</right_val></_></_>
        <_>
          <_>
            <feature>
              <rects>
                <_>
                  20 12 4 6 -1.</_>
                <_>
                  21 13 2 6 2.</_></rects>
              <tilted>1</tilted></feature>
            <threshold>-0.0299582406878471</threshold>
            <left_val>-1.</left_val>
            <right_val>0.0563400089740753</right_val></_></_>
        <_>
          <_>
            <feature>
              <rects>
                <_>
                  4 12 6 4 -1.</_>
                <_>
                  3 13 6 2 2.</_></rects>
              <tilted>1</tilted></feature>
            <threshold>-0.0115885296836495</threshold>
            <left_val>0.7541369199752808</left_val>
            <right_val>-0.2091342955827713</right_val></_></_>
        <_>
          <_>
            <feature>
              <rects>
                <_>
                  12 11 1 12 -1.</_>
                <_>
                  9 14 1 6 2.</_></rects>
              <tilted>1</tilted></feature>
            <threshold>-0.0185635704547167</threshold>
            <left_val>-0.4329217076301575</left_val>
            <right_val>0.0882600098848343</right_val></_></_>
        <_>
          <_>
            <feature>
              <rects>
                <_>
                  0 9 2 12 -1.</_>
                <_>
                  0 9 1 6 2.</_>
                <_>
                  1 15 1 6 2.</_></rects>
              <tilted>0</tilted></feature>
            <threshold>-6.0749067924916744e-003</threshold>
            <left_val>0.7543315291404724</left_val>
            <right_val>-0.1718403995037079</right_val></_></_>
        <_>
          <_>
            <feature>
              <rects>
                <_>
                  12 10 1 12 -1.</_>
                <_>
                  9 13 1 6 2.</_></rects>
              <tilted>1</tilted></feature>
            <threshold>4.5771151781082153e-003</threshold>
            <left_val>0.1233133971691132</left_val>
            <right_val>-0.2986877858638763</right_val></_></_>
        <_>
          <_>
            <feature>
              <rects>
                <_>
                  12 10 12 1 -1.</_>
                <_>
                  15 13 6 1 2.</_></rects>
              <tilted>1</tilted></feature>
            <threshold>-4.1858269833028316e-003</threshold>
            <left_val>0.4964621067047119</left_val>
            <right_val>-0.2640464007854462</right_val></_></_>
        <_>
          <_>
            <feature>
              <rects>
                <_>
                  16 14 8 7 -1.</_>
                <_>
                  16 14 4 7 2.</_></rects>
              <tilted>0</tilted></feature>
            <threshold>0.0656843185424805</threshold>
            <left_val>-3.6480689886957407e-003</left_val>
            <right_val>0.8520734906196594</right_val></_></_>
        <_>
          <_>
            <feature>
              <rects>
                <_>
                  11 14 9 1 -1.</_>
                <_>
                  14 17 3 1 3.</_></rects>
              <tilted>1</tilted></feature>
            <threshold>8.7894592434167862e-003</threshold>
            <left_val>0.1761098057031632</left_val>
            <right_val>-0.8707143068313599</right_val></_></_>
        <_>
          <_>
            <feature>
              <rects>
                <_>
                  18 11 4 5 -1.</_>
                <_>
                  19 11 2 5 2.</_></rects>
              <tilted>0</tilted></feature>
            <threshold>-6.4802151173353195e-003</threshold>
            <left_val>-0.6999589800834656</left_val>
            <right_val>0.0333632789552212</right_val></_></_>
        <_>
          <_>
            <feature>
              <rects>
                <_>
                  7 2 3 2 -1.</_>
                <_>
                  8 2 1 2 3.</_></rects>
              <tilted>0</tilted></feature>
            <threshold>-4.6969351387815550e-005</threshold>
            <left_val>0.3642823994159699</left_val>
            <right_val>-0.3562093973159790</right_val></_></_>
        <_>
          <_>
            <feature>
              <rects>
                <_>
                  18 14 4 1 -1.</_>
                <_>
                  19 14 2 1 2.</_></rects>
              <tilted>0</tilted></feature>
            <threshold>-1.4330330304801464e-004</threshold>
            <left_val>0.2602936923503876</left_val>
            <right_val>-0.2025517970323563</right_val></_></_>
        <_>
          <_>
            <feature>
              <rects>
                <_>
                  0 12 9 4 -1.</_>
                <_>
                  3 12 3 4 3.</_></rects>
              <tilted>0</tilted></feature>
            <threshold>-0.0195620507001877</threshold>
            <left_val>0.7905489206314087</left_val>
            <right_val>-0.1789615005254746</right_val></_></_></trees>
      <stage_threshold>-1.0198370218276978</stage_threshold>
      <parent>10</parent>
      <next>-1</next></_>
    <_>
      <trees>
        <_>
          <_>
            <feature>
              <rects>
                <_>
                  0 0 20 2 -1.</_>
                <_>
                  0 0 10 1 2.</_>
                <_>
                  10 1 10 1 2.</_></rects>
              <tilted>0</tilted></feature>
            <threshold>9.9113513715565205e-004</threshold>
            <left_val>-0.4783731997013092</left_val>
            <right_val>0.3893139958381653</right_val></_></_>
        <_>
          <_>
            <feature>
              <rects>
                <_>
                  15 20 8 2 -1.</_>
                <_>
                  15 20 4 2 2.</_></rects>
              <tilted>0</tilted></feature>
            <threshold>-4.3042912147939205e-003</threshold>
            <left_val>0.4177888929843903</left_val>
            <right_val>-0.2855820953845978</right_val></_></_>
        <_>
          <_>
            <feature>
              <rects>
                <_>
                  2 18 8 6 -1.</_>
                <_>
                  2 18 4 3 2.</_>
                <_>
                  6 21 4 3 2.</_></rects>
              <tilted>0</tilted></feature>
            <threshold>-6.0664131306111813e-003</threshold>
            <left_val>0.4470722079277039</left_val>
            <right_val>-0.3558286130428314</right_val></_></_>
        <_>
          <_>
            <feature>
              <rects>
                <_>
                  15 3 4 8 -1.</_>
                <_>
                  16 4 2 8 2.</_></rects>
              <tilted>1</tilted></feature>
            <threshold>7.9083591699600220e-003</threshold>
            <left_val>-0.1331735998392105</left_val>
            <right_val>0.2030314058065414</right_val></_></_>
        <_>
          <_>
            <feature>
              <rects>
                <_>
                  12 3 1 4 -1.</_>
                <_>
                  11 4 1 2 2.</_></rects>
              <tilted>1</tilted></feature>
            <threshold>1.9619560334831476e-003</threshold>
            <left_val>0.1819913983345032</left_val>
            <right_val>-0.8340277075767517</right_val></_></_>
        <_>
          <_>
            <feature>
              <rects>
                <_>
                  16 8 3 6 -1.</_>
                <_>
                  17 9 1 6 3.</_></rects>
              <tilted>1</tilted></feature>
            <threshold>0.0118605801835656</threshold>
            <left_val>8.5516432300209999e-003</left_val>
            <right_val>-0.8842452168464661</right_val></_></_>
        <_>
          <_>
            <feature>
              <rects>
                <_>
                  8 4 12 3 -1.</_>
                <_>
                  7 5 12 1 3.</_></rects>
              <tilted>1</tilted></feature>
            <threshold>6.3746809028089046e-003</threshold>
            <left_val>-0.1951801925897598</left_val>
            <right_val>0.7616006731987000</right_val></_></_>
        <_>
          <_>
            <feature>
              <rects>
                <_>
                  17 4 4 13 -1.</_>
                <_>
                  18 5 2 13 2.</_></rects>
              <tilted>1</tilted></feature>
            <threshold>-5.3388578817248344e-003</threshold>
            <left_val>0.5157067179679871</left_val>
            <right_val>-0.0949997827410698</right_val></_></_>
        <_>
          <_>
            <feature>
              <rects>
                <_>
                  1 11 8 2 -1.</_>
                <_>
                  3 11 4 2 2.</_></rects>
              <tilted>0</tilted></feature>
            <threshold>1.8825499573722482e-003</threshold>
            <left_val>-0.2815789878368378</left_val>
            <right_val>0.5375999808311462</right_val></_></_>
        <_>
          <_>
            <feature>
              <rects>
                <_>
                  13 6 6 12 -1.</_>
                <_>
                  10 9 6 6 2.</_></rects>
              <tilted>1</tilted></feature>
            <threshold>7.0111448876559734e-003</threshold>
            <left_val>0.1922343969345093</left_val>
            <right_val>-0.1078589037060738</right_val></_></_>
        <_>
          <_>
            <feature>
              <rects>
                <_>
                  11 6 12 6 -1.</_>
                <_>
                  14 9 6 6 2.</_></rects>
              <tilted>1</tilted></feature>
            <threshold>0.0297022107988596</threshold>
            <left_val>-0.5567455291748047</left_val>
            <right_val>0.2580955922603607</right_val></_></_>
        <_>
          <_>
            <feature>
              <rects>
                <_>
                  15 20 8 2 -1.</_>
                <_>
                  15 20 4 2 2.</_></rects>
              <tilted>0</tilted></feature>
            <threshold>-1.1211599921807647e-003</threshold>
            <left_val>0.2256712019443512</left_val>
            <right_val>-0.3732667863368988</right_val></_></_>
        <_>
          <_>
            <feature>
              <rects>
                <_>
                  1 8 6 16 -1.</_>
                <_>
                  3 8 2 16 3.</_></rects>
              <tilted>0</tilted></feature>
            <threshold>-0.0275728404521942</threshold>
            <left_val>0.7343068122863770</left_val>
            <right_val>-0.1925313025712967</right_val></_></_></trees>
      <stage_threshold>-0.9106289744377136</stage_threshold>
      <parent>11</parent>
      <next>-1</next></_>
    <_>
      <trees>
        <_>
          <_>
            <feature>
              <rects>
                <_>
                  7 0 1 18 -1.</_>
                <_>
                  7 9 1 9 2.</_></rects>
              <tilted>0</tilted></feature>
            <threshold>0.0152749000117183</threshold>
            <left_val>-0.4134899973869324</left_val>
            <right_val>0.3307195007801056</right_val></_></_>
        <_>
          <_>
            <feature>
              <rects>
                <_>
                  17 3 3 1 -1.</_>
                <_>
                  18 3 1 1 3.</_></rects>
              <tilted>0</tilted></feature>
            <threshold>1.2810559710487723e-003</threshold>
            <left_val>0.0697225630283356</left_val>
            <right_val>-0.8469451069831848</right_val></_></_>
        <_>
          <_>
            <feature>
              <rects>
                <_>
                  0 2 24 3 -1.</_>
                <_>
                  6 2 12 3 2.</_></rects>
              <tilted>0</tilted></feature>
            <threshold>-0.0454884991049767</threshold>
            <left_val>0.6076940894126892</left_val>
            <right_val>-0.1908192038536072</right_val></_></_>
        <_>
          <_>
            <feature>
              <rects>
                <_>
                  13 3 8 5 -1.</_>
                <_>
                  15 5 4 5 2.</_></rects>
              <tilted>1</tilted></feature>
            <threshold>0.1097839996218681</threshold>
            <left_val>3.5025770775973797e-003</left_val>
            <right_val>-1.0000070333480835</right_val></_></_>
        <_>
          <_>
            <feature>
              <rects>
                <_>
                  11 3 5 8 -1.</_>
                <_>
                  9 5 5 4 2.</_></rects>
              <tilted>1</tilted></feature>
            <threshold>-7.3251100257039070e-003</threshold>
            <left_val>0.4432050883769989</left_val>
            <right_val>-0.3019098937511444</right_val></_></_>
        <_>
          <_>
            <feature>
              <rects>
                <_>
                  7 0 16 16 -1.</_>
                <_>
                  7 4 16 8 2.</_></rects>
              <tilted>0</tilted></feature>
            <threshold>-0.1048675999045372</threshold>
            <left_val>-0.6285926103591919</left_val>
            <right_val>0.0751738324761391</right_val></_></_>
        <_>
          <_>
            <feature>
              <rects>
                <_>
                  3 18 12 6 -1.</_>
                <_>
                  3 18 6 3 2.</_>
                <_>
                  9 21 6 3 2.</_></rects>
              <tilted>0</tilted></feature>
            <threshold>-5.9727667830884457e-003</threshold>
            <left_val>0.3177641928195953</left_val>
            <right_val>-0.4104323983192444</right_val></_></_>
        <_>
          <_>
            <feature>
              <rects>
                <_>
                  12 18 2 2 -1.</_>
                <_>
                  13 18 1 1 2.</_>
                <_>
                  12 19 1 1 2.</_></rects>
              <tilted>0</tilted></feature>
            <threshold>-1.6635219799354672e-004</threshold>
            <left_val>-0.4765196144580841</left_val>
            <right_val>0.1369637995958328</right_val></_></_>
        <_>
          <_>
            <feature>
              <rects>
                <_>
                  0 3 24 4 -1.</_>
                <_>
                  0 4 24 2 2.</_></rects>
              <tilted>0</tilted></feature>
            <threshold>2.0623540040105581e-003</threshold>
            <left_val>-0.3107193112373352</left_val>
            <right_val>0.4542708098888397</right_val></_></_>
        <_>
          <_>
            <feature>
              <rects>
                <_>
                  12 0 3 10 -1.</_>
                <_>
                  13 1 1 10 3.</_></rects>
              <tilted>1</tilted></feature>
            <threshold>7.5166621245443821e-003</threshold>
            <left_val>-0.1100180968642235</left_val>
            <right_val>0.4466356933116913</right_val></_></_>
        <_>
          <_>
            <feature>
              <rects>
                <_>
                  10 18 2 2 -1.</_>
                <_>
                  10 18 1 1 2.</_>
                <_>
                  11 19 1 1 2.</_></rects>
              <tilted>0</tilted></feature>
            <threshold>1.9247060117777437e-004</threshold>
            <left_val>0.2063332945108414</left_val>
            <right_val>-0.7003669142723084</right_val></_></_>
        <_>
          <_>
            <feature>
              <rects>
                <_>
                  12 0 3 10 -1.</_>
                <_>
                  13 1 1 10 3.</_></rects>
              <tilted>1</tilted></feature>
            <threshold>0.0213740393519402</threshold>
            <left_val>-1.8389129545539618e-003</left_val>
            <right_val>-0.8511955738067627</right_val></_></_>
        <_>
          <_>
            <feature>
              <rects>
                <_>
                  12 0 10 3 -1.</_>
                <_>
                  11 1 10 1 3.</_></rects>
              <tilted>1</tilted></feature>
            <threshold>-5.0823912024497986e-003</threshold>
            <left_val>0.6170843243598938</left_val>
            <right_val>-0.2500321865081787</right_val></_></_>
        <_>
          <_>
            <feature>
              <rects>
                <_>
                  19 2 4 3 -1.</_>
                <_>
                  20 2 2 3 2.</_></rects>
              <tilted>0</tilted></feature>
            <threshold>1.8664189847186208e-003</threshold>
            <left_val>-0.1096353009343147</left_val>
            <right_val>0.4204010069370270</right_val></_></_>
        <_>
          <_>
            <feature>
              <rects>
                <_>
                  7 15 2 2 -1.</_>
                <_>
                  7 15 1 1 2.</_>
                <_>
                  8 16 1 1 2.</_></rects>
              <tilted>0</tilted></feature>
            <threshold>2.1517059940379113e-004</threshold>
            <left_val>0.2155684977769852</left_val>
            <right_val>-0.6692168712615967</right_val></_></_>
        <_>
          <_>
            <feature>
              <rects>
                <_>
                  17 2 6 3 -1.</_>
                <_>
                  19 2 2 3 3.</_></rects>
              <tilted>0</tilted></feature>
            <threshold>-3.5174300428479910e-003</threshold>
            <left_val>0.5024536848068237</left_val>
            <right_val>-0.2419411987066269</right_val></_></_>
        <_>
          <_>
            <feature>
              <rects>
                <_>
                  1 3 6 2 -1.</_>
                <_>
                  3 3 2 2 3.</_></rects>
              <tilted>0</tilted></feature>
            <threshold>3.4569640411064029e-004</threshold>
            <left_val>0.2868995070457459</left_val>
            <right_val>-0.5955945253372192</right_val></_></_></trees>
      <stage_threshold>-0.9248229265213013</stage_threshold>
      <parent>12</parent>
      <next>-1</next></_>
    <_>
      <trees>
        <_>
          <_>
            <feature>
              <rects>
                <_>
                  3 13 1 3 -1.</_>
                <_>
                  2 14 1 1 3.</_></rects>
              <tilted>1</tilted></feature>
            <threshold>-4.4030621647834778e-003</threshold>
            <left_val>0.8131368756294251</left_val>
            <right_val>-0.1564431041479111</right_val></_></_>
        <_>
          <_>
            <feature>
              <rects>
                <_>
                  16 0 8 6 -1.</_>
                <_>
                  20 0 4 3 2.</_>
                <_>
                  16 3 4 3 2.</_></rects>
              <tilted>0</tilted></feature>
            <threshold>7.7344700694084167e-003</threshold>
            <left_val>-0.1016018018126488</left_val>
            <right_val>0.2290723025798798</right_val></_></_>
        <_>
          <_>
            <feature>
              <rects>
                <_>
                  0 0 8 6 -1.</_>
                <_>
                  0 0 4 3 2.</_>
                <_>
                  4 3 4 3 2.</_></rects>
              <tilted>0</tilted></feature>
            <threshold>4.4511360465548933e-004</threshold>
            <left_val>-0.4396221935749054</left_val>
            <right_val>0.2224522978067398</right_val></_></_>
        <_>
          <_>
            <feature>
              <rects>
                <_>
                  19 2 1 3 -1.</_>
                <_>
                  18 3 1 1 3.</_></rects>
              <tilted>1</tilted></feature>
            <threshold>2.4220589548349380e-003</threshold>
            <left_val>0.0389356315135956</left_val>
            <right_val>-0.5877264738082886</right_val></_></_>
        <_>
          <_>
            <feature>
              <rects>
                <_>
                  5 2 3 1 -1.</_>
                <_>
                  6 3 1 1 3.</_></rects>
              <tilted>1</tilted></feature>
            <threshold>1.4860139926895499e-003</threshold>
            <left_val>0.1380936056375504</left_val>
            <right_val>-0.9509605169296265</right_val></_></_>
        <_>
          <_>
            <feature>
              <rects>
                <_>
                  20 10 4 3 -1.</_>
                <_>
                  21 10 2 3 2.</_></rects>
              <tilted>0</tilted></feature>
            <threshold>-2.5468720123171806e-003</threshold>
            <left_val>0.4837150871753693</left_val>
            <right_val>-0.1963690966367722</right_val></_></_>
        <_>
          <_>
            <feature>
              <rects>
                <_>
                  5 21 14 2 -1.</_>
                <_>
                  5 22 14 1 2.</_></rects>
              <tilted>0</tilted></feature>
            <threshold>-2.5423069018870592e-004</threshold>
            <left_val>0.2633317112922669</left_val>
            <right_val>-0.4411666095256805</right_val></_></_>
        <_>
          <_>
            <feature>
              <rects>
                <_>
                  0 11 24 3 -1.</_>
                <_>
                  8 12 8 1 9.</_></rects>
              <tilted>0</tilted></feature>
            <threshold>0.0700618624687195</threshold>
            <left_val>0.1743787974119186</left_val>
            <right_val>-0.6087557077407837</right_val></_></_>
        <_>
          <_>
            <feature>
              <rects>
                <_>
                  4 11 3 2 -1.</_>
                <_>
                  5 12 1 2 3.</_></rects>
              <tilted>1</tilted></feature>
            <threshold>-8.3105108933523297e-004</threshold>
            <left_val>0.5432031154632568</left_val>
            <right_val>-0.2181174010038376</right_val></_></_>
        <_>
          <_>
            <feature>
              <rects>
                <_>
                  19 19 3 5 -1.</_>
                <_>
                  20 19 1 5 3.</_></rects>
              <tilted>0</tilted></feature>
            <threshold>-2.1978090517222881e-003</threshold>
            <left_val>0.4074239134788513</left_val>
            <right_val>-0.1461308002471924</right_val></_></_>
        <_>
          <_>
            <feature>
              <rects>
                <_>
                  0 6 9 8 -1.</_>
                <_>
                  3 6 3 8 3.</_></rects>
              <tilted>0</tilted></feature>
            <threshold>0.0291790608316660</threshold>
            <left_val>-0.1833406984806061</left_val>
            <right_val>0.7221984267234802</right_val></_></_>
        <_>
          <_>
            <feature>
              <rects>
                <_>
                  16 10 3 4 -1.</_>
                <_>
                  16 10 3 2 2.</_></rects>
              <tilted>1</tilted></feature>
            <threshold>0.0362100787460804</threshold>
            <left_val>0.0514892898499966</left_val>
            <right_val>-0.9999995231628418</right_val></_></_>
        <_>
          <_>
            <feature>
              <rects>
                <_>
                  8 10 4 3 -1.</_>
                <_>
                  8 10 2 3 2.</_></rects>
              <tilted>1</tilted></feature>
            <threshold>-2.6882609745371155e-005</threshold>
            <left_val>0.1780968010425568</left_val>
            <right_val>-0.6286569833755493</right_val></_></_>
        <_>
          <_>
            <feature>
              <rects>
                <_>
                  20 16 4 8 -1.</_>
                <_>
                  22 16 2 4 2.</_>
                <_>
                  20 20 2 4 2.</_></rects>
              <tilted>0</tilted></feature>
            <threshold>2.1575889550149441e-003</threshold>
            <left_val>-0.2272274941205978</left_val>
            <right_val>0.3651339113712311</right_val></_></_>
        <_>
          <_>
            <feature>
              <rects>
                <_>
                  1 20 4 4 -1.</_>
                <_>
                  1 20 2 2 2.</_>
                <_>
                  3 22 2 2 2.</_></rects>
              <tilted>0</tilted></feature>
            <threshold>2.0406830590218306e-003</threshold>
            <left_val>-0.2157739996910095</left_val>
            <right_val>0.5500900149345398</right_val></_></_></trees>
      <stage_threshold>-0.7772647738456726</stage_threshold>
      <parent>13</parent>
      <next>-1</next></_></stages></myhaar>
</opencv_storage>
